<?xml version="1.0"?>
<opencv_storage>
<cascade>
  <stageType>BOOST</stageType>
  <featureType>LBP</featureType>
  <height>32</height>
  <width>32</width>
  <stageParams>
    <boostType>GAB</boostType>
    <minHitRate>9.9500000476837158e-001</minHitRate>
    <maxFalseAlarm>5.0000000000000000e-001</maxFalseAlarm>
    <weightTrimRate>9.4999999999999996e-001</weightTrimRate>
    <maxDepth>2</maxDepth>
    <maxWeakCount>128</maxWeakCount></stageParams>
  <featureParams>
    <maxCatCount>256</maxCatCount></featureParams>
  <stageNum>20</stageNum>
  <stages>
    <!-- stage 0 -->
    <_>
      <maxWeakCount>2</maxWeakCount>
      <stageThreshold>-1.4878418445587158e+000</stageThreshold>
      <weakClassifiers>
        <_>
          <internalNodes>
            1 2 56 2136472575 1031522815 -1841153698 -44057965
            2076695551 831324563 -1449183237 2013247455 0 -1 215
            -111674657 -199765917 -2130468201 -829699958 -945817365
            1527761033 1250663243 -523239473 -2 -3 245 1342131459
            1877929982 2147483631 1862250495 1602182743 1996226559
            -65708 1291747199</internalNodes>
          <leafValues>
            -8.9048022031784058e-001 3.5616439580917358e-001
            -6.2237763404846191e-001 8.8558858633041382e-001</leafValues></_>
        <_>
          <internalNodes>
            1 2 12 572783395 -758716411 16957642 -536683520 -233770747
            1342693386 -359935968 -146539673 0 -1 50 -689967137
            -619723337 -733877937 -111939325 -775433609 -472677375
            -804786093 -34086025 -2 -3 136 -591537135 620691181 -9
            117309437 -16794404 1962770431 1962933628 16084351</internalNodes>
          <leafValues>
            -8.6546415090560913e-001 5.5910277366638184e-001
            -6.2370920181274414e-001 8.8089460134506226e-001</leafValues></_></weakClassifiers></_>
    <!-- stage 1 -->
    <_>
      <maxWeakCount>2</maxWeakCount>
      <stageThreshold>-1.0772757530212402e+000</stageThreshold>
      <weakClassifiers>
        <_>
          <internalNodes>
            1 2 15 -212741154 -548159073 -1878970017 -35677459
            -1591493377 -70975339 -1726117633 2011394731 0 -1 118
            85135807 1561444379 293671231 -12340901 -1651881793
            -374210163 -905209637 -70473542 -2 -3 238 784154421
            767344376 -16777547 767225593 -57345 1056440319 2147442685
            -1342177282</internalNodes>
          <leafValues>
            -8.3391004800796509e-001 2.9251700639724731e-001
            -3.4615385532379150e-001 8.9382714033126831e-001</leafValues></_>
        <_>
          <internalNodes>
            1 2 1 -300810445 -673460085 -2122277675 -709422877
            -528239945 -1155948477 -1037614237 1920414563 0 -1 148
            596844503 -1682713389 1024570847 -40611681 -771164165
            -877887232 -1707500907 -1088648562 -2 -3 164 1548439704
            3493955 33652737 -2106519167 1610850443 -519004126
            -1602042997 9233195</internalNodes>
          <leafValues>
            -9.0392172336578369e-001 8.7342008948326111e-002
            -7.3112195730209351e-001 7.3183333873748779e-001</leafValues></_></weakClassifiers></_>
    <!-- stage 2 -->
    <_>
      <maxWeakCount>2</maxWeakCount>
      <stageThreshold>-1.4271517992019653e+000</stageThreshold>
      <weakClassifiers>
        <_>
          <internalNodes>
            1 2 187 525457405 391475477 -1828216873 366866839 -73815569
            966852697 -1601594389 -1112829233 0 -1 216 -77871105
            -1580235830 -788197227 248377951 -793781509 -40665074
            -1316367889 -50331685 -2 -3 17 -56430605 1174339574
            -939454272 -134217738 2012708727 -143163522 -158965435
            2003924851</internalNodes>
          <leafValues>
            -7.9982286691665649e-001 1.8367347121238708e-001
            -5.8974361419677734e-001 8.6415094137191772e-001</leafValues></_>
        <_>
          <internalNodes>
            1 2 244 1154433151 -275258991 -1800056675 -457714090
            -393759936 -12468223 -7095755 -286262465 0 -1 14 -25694233
            -1006640901 957086016 -305673970 -930922029 -351442813
            1284433700 -270009353 -2 -3 47 2004169442 -201330689
            2128473066 -268566545 1979578356 2004353014 -8587276
            550826468</internalNodes>
          <leafValues>
            -8.5972261428833008e-001 2.0798155665397644e-001
            -6.2732893228530884e-001 7.6182454824447632e-001</leafValues></_></weakClassifiers></_>
    <!-- stage 3 -->
    <_>
      <maxWeakCount>3</maxWeakCount>
      <stageThreshold>-1.1181011199951172e+000</stageThreshold>
      <weakClassifiers>
        <_>
          <internalNodes>
            1 2 187 1073740797 939519999 -32769 -1073741825 -33619969
            -1107296257 -134236161 -1074798865 0 -1 190 -254817825
            -116137579 -1853634657 -1363717743 1748489119 -1206533975
            -113013809 545244063 -2 -3 218 -318780172 -1526792961
            -16879762 620687359 63351 -1358954623 -16777474 15728639</internalNodes>
          <leafValues>
            -8.4351551532745361e-001 -8.5409253835678101e-002
            -6.3200002908706665e-001 8.5345995426177979e-001</leafValues></_>
        <_>
          <internalNodes>
            1 2 246 1507286815 -111426735 -953872018 -971533749
            -70525119 -108295999 -1683752586 -16780609 0 -1 49 -45096281
            -175120035 -1929265145 -216227383 -519856001 1074495688
            -1588084445 -143134745 -2 -3 19 -754781982 -669728640 4251
            -419299315 241 147324934 -2011676559 1462985731</internalNodes>
          <leafValues>
            -8.2154268026351929e-001 1.4542633295059204e-001
            -6.3439571857452393e-001 7.5028729438781738e-001</leafValues></_>
        <_>
          <internalNodes>
            1 2 257 1203569534 -350256626 -536788670 -1496084150
            -1043109280 -884801516 -668389115 1592590309 0 -1 76
            -238558265 -1491892079 360923608 -909663719 -1603552001
            -1182052192 -2130590518 -136583025 -2 -3 99 465771740
            470667270 -1054830179 -1090142071 -390017606 134310538
            -1920331704 26071567</internalNodes>
          <leafValues>
            -9.0941214561462402e-001 3.8649925589561462e-001
            -5.4682672023773193e-001 5.4695713520050049e-001</leafValues></_></weakClassifiers></_>
    <!-- stage 4 -->
    <_>
      <maxWeakCount>3</maxWeakCount>
      <stageThreshold>-1.3205381631851196e+000</stageThreshold>
      <weakClassifiers>
        <_>
          <internalNodes>
            1 2 37 889028605 -1 -1 -262209 1744666621 -32769 -33587201
            -98305 0 -1 189 -44600193 -70919229 -1862084641 -428616041
            -106585346 -108455542 -1297047873 -523256897 -2 -3 5
            -348983310 -1078460417 -1 -589835 -1073217545 2080473088
            -788618 1199011635</internalNodes>
          <leafValues>
            -7.9549717903137207e-001 6.2761507928371429e-002
            -6.0000002384185791e-001 8.7772923707962036e-001</leafValues></_>
        <_>
          <internalNodes>
            1 2 8 933740527 -318833045 -16777250 -289472578 2004877311
            -134217731 -268435593 -142608409 0 -1 39 -666372101
            -1042316881 -2142547829 1363397405 -666193801 1887699075
            -342241243 -167777753 -2 -3 34 771493236 2147418111
            2147483647 268320759 2146858871 2012643319 2013214591
            1853833086</internalNodes>
          <leafValues>
            -6.9829881191253662e-001 3.1852999329566956e-001
            -6.4290404319763184e-001 7.9199200868606567e-001</leafValues></_>
        <_>
          <internalNodes>
            1 2 132 1432203564 -4391122 -262309 -1048577 -10846228
            -1116229852 -133461 -1152604664 0 -1 97 -262362113
            -178929199 -802860779 -74755767 1089046986 -91455471
            1258457247 -622106 -2 -3 219 -452989795 83755006 -268472404
            754778110 2130664949 402128895 1879048189 83722070</internalNodes>
          <leafValues>
            -6.8500089645385742e-001 5.2812170982360840e-001
            -6.8933528661727905e-001 7.3116821050643921e-001</leafValues></_></weakClassifiers></_>
    <!-- stage 5 -->
    <_>
      <maxWeakCount>3</maxWeakCount>
      <stageThreshold>-9.6276795864105225e-001</stageThreshold>
      <weakClassifiers>
        <_>
          <internalNodes>
            1 2 41 791937019 -18087961 -1 -2049 -8929281 -25166081
            -524353 -9 0 -1 4 -337120257 -640165481 -779595473
            -313790089 -1421108289 -1182022519 -1467643473 -135924153 -2
            -3 231 1576934761 -196737 -2 -201326594 -32899 1979711487
            -33636349 1862057983</internalNodes>
          <leafValues>
            -7.4295777082443237e-001 1.0426539927721024e-001
            -4.5864662528038025e-001 8.8361406326293945e-001</leafValues></_>
        <_>
          <internalNodes>
            1 2 212 -136461321 1071101137 -217993057 -1520575155
            180462511 365433224 -1937513846 741865711 0 -1 137
            -258739779 -1860587165 -150256201 -719744695 -1072633349
            -1165588322 -2104366945 -1462189873 -2 -3 58 1870626619
            -25231429 -16810078 -8765454 2138988407 1602191351
            2146922260 1885822807</internalNodes>
          <leafValues>
            -7.5135254859924316e-001 2.2607575356960297e-001
            -6.2444823980331421e-001 6.6604429483413696e-001</leafValues></_>
        <_>
          <internalNodes>
            1 2 258 1581857787 -1284300065 -653140497 2145112538
            -1489169861 -1397880383 -486316025 492288894 0 -1 196
            -53614609 1897103948 -2147303137 -38567797 -1694240707
            147095562 990086299 -1050665 -2 -3 61 272718300 353423377
            819228 1042087936 939690121 824905756 134350862 553218755</internalNodes>
          <leafValues>
            -7.3019707202911377e-001 6.3939803838729858e-001
            -8.3084022998809814e-001 5.8897310495376587e-001</leafValues></_></weakClassifiers></_>
    <!-- stage 6 -->
    <_>
      <maxWeakCount>7</maxWeakCount>
      <stageThreshold>-3.5849087238311768e+000</stageThreshold>
      <weakClassifiers>
        <_>
          <internalNodes>
            1 2 160 519319933 -42139653 2146402111 -167780617 -1056774
            -1073942529 1031126525 -1163353956 0 -1 133 1418015729
            -558905578 -1718543155 -241843961 -1148866372 -85387134
            -1450587201 -1542864465 -2 -3 30 -1073557504 426506 4096
            4325376 134807585 16 67109382 1342374407</internalNodes>
          <leafValues>
            -7.6350665092468262e-001 -1.6920473426580429e-003
            -9.4871795177459717e-001 7.9472142457962036e-001</leafValues></_>
        <_>
          <internalNodes>
            1 2 160 519323005 -42139653 2146402111 -100671753 -8198
            -1073942529 1031126525 -1145260548 0 -1 150 462913021
            -40366061 -1728031401 -585479733 -402079825 -90537821
            -662398534 -5625672 -2 -3 82 625222152 1073610241 2147450860
            -16777234 1242079760 32768 -1746923508 71597524</internalNodes>
          <leafValues>
            -6.6210925579071045e-001 4.0593272447586060e-001
            -7.5286585092544556e-001 9.2849653959274292e-001</leafValues></_>
        <_>
          <internalNodes>
            1 2 0 190283759 -2082766825 1428394015 1205454031 -373251333
            2055909512 -1349817649 2144333707 0 -1 198 -203424769
            -1181020007 -1777266337 -16412269 -880549717 -1098612736
            -510088545 -4195349 -2 -3 46 -753742285 -754350069
            -2139086705 -1877934079 -2004254063 730337288 -1409285977
            2122449251</internalNodes>
          <leafValues>
            -9.3498426675796509e-001 8.2560616731643677e-001
            -6.7315143346786499e-001 5.8598417043685913e-001</leafValues></_>
        <_>
          <internalNodes>
            1 2 0 186089391 64716823 1428394015 1188676815 1774199547
            2055909512 -1349817649 1598664579 0 -1 121 -180881449
            -653164539 -1723842337 -545181419 -930971207 -1735916918
            -1464296773 -73414481 -2 -3 202 -1945764911 764924161
            -1727786731 -1148726895 1947243658 -1970237310 268439722
            500662281</internalNodes>
          <leafValues>
            -9.6203041076660156e-001 8.3376872539520264e-001
            -6.4740103483200073e-001 4.6353089809417725e-001</leafValues></_>
        <_>
          <internalNodes>
            1 2 0 186023599 47939607 1428394015 46777551 1774199419
            2055909512 797663823 508080002 0 -1 65 -60818689 -645463987
            -1040121575 -250621875 419594397 -1709080029 -1977955877
            -21861 -2 -3 107 -606750978 -2029303982 302518553 -452624098
            -1551760201 -880230389 1234029197 -837579710</internalNodes>
          <leafValues>
            -9.9729770421981812e-001 9.2566794157028198e-001
            -6.9345188140869141e-001 5.1725542545318604e-001</leafValues></_>
        <_>
          <internalNodes>
            1 2 0 152532911 47874071 1428394015 143246543 -381672837
            2055909512 260795087 1583918850 0 -1 169 1386083323
            -640163773 285814867 -780054503 -217517413 -544563064
            42191497 -272907457 -2 -3 9 -367547598 -987430245 67125388
            -247234248 -1597715861 -1065222102 -519634859 -780730249</internalNodes>
          <leafValues>
            -9.9862480163574219e-001 5.5500137805938721e-001
            -7.7008265256881714e-001 3.9853450655937195e-001</leafValues></_>
        <_>
          <internalNodes>
            1 2 0 151140239 21659653 1075843094 8454215 553648688
            302022664 209863179 339773570 0 -1 185 -788494689 -788463615
            16777216 1410401297 -2097119090 -1744797696 -528313702
            -620264949 -2 -3 191 -788283382 1242679554 1610612737
            273760576 524835 268500992 2050 8886401</internalNodes>
          <leafValues>
            -9.9988251924514771e-001 8.6158400774002075e-001
            -6.7047941684722900e-001 6.6798382997512817e-001</leafValues></_></weakClassifiers></_>
    <!-- stage 7 -->
    <_>
      <maxWeakCount>3</maxWeakCount>
      <stageThreshold>-1.1485666036605835e+000</stageThreshold>
      <weakClassifiers>
        <_>
          <internalNodes>
            1 2 90 -74148900 -548290084 102619 -141938410 -1321101062
            -84244038 -1207395841 -292706136 0 -1 74 1527816415
            -1660743647 1208060377 -46071680 -1702325570 -83197818
            -1417508417 -4683568 -2 -3 70 754191908 1073741823 -524291
            2142666622 2013231084 2147448831 -426871 2062823420</internalNodes>
          <leafValues>
            -7.7876108884811401e-001 2.5853657722473145e-001
            -5.2542370557785034e-001 7.8986400365829468e-001</leafValues></_>
        <_>
          <internalNodes>
            1 2 18 21486943 -1521188480 -803121891 -856817501
            -2002596694 952828042 -1732599286 -118752629 0 -1 222
            -662653954 2013270225 85696717 -1109931901 -2010387272
            1051689091 -1065133430 -4198166 -2 -3 265 1246236
            -2147483648 -1073479536 -934739960 -1026555896 -1744830462
            -2013265855 -1897136128</internalNodes>
          <leafValues>
            -6.9589972496032715e-001 3.5687899589538574e-001
            -4.4062888622283936e-001 8.1374728679656982e-001</leafValues></_>
        <_>
          <internalNodes>
            1 2 206 -397942661 -183250743 16904466 -180225980
            -2004647201 -96288767 -535975793 215481755 0 -1 127
            -510854404 -577748849 285430099 1326678405 1124727551
            -1447034744 1493804718 -1715631206 -2 -3 171 1023938780
            -2128478208 268468236 16908544 1073807416 540816 553723931
            677129372</internalNodes>
          <leafValues>
            -7.7212566137313843e-001 3.2609412074089050e-001
            -6.8149709701538086e-001 6.7118614912033081e-001</leafValues></_></weakClassifiers></_>
    <!-- stage 8 -->
    <_>
      <maxWeakCount>5</maxWeakCount>
      <stageThreshold>-3.0498187541961670e+000</stageThreshold>
      <weakClassifiers>
        <_>
          <internalNodes>
            1 2 261 1291808191 -33570817 -65537 -786433 2147444607 -1 -1
            -1 0 -1 223 -720914949 -1651276968 1358977311 -1080045295
            -796669541 -1988067191 1216989896 -1076901669 -2 -3 11
            792674086 805306367 2147450879 251658239 134250639
            -2147483647 2147223680 -2081128449</internalNodes>
          <leafValues>
            -6.6984593868255615e-001 3.1654676795005798e-001
            -8.7500000000000000e-001 9.3919998407363892e-001</leafValues></_>
        <_>
          <internalNodes>
            1 2 105 864558449 -1315896943 -1757341377 995426321
            1049177597 -1146388326 -1677640978 688732234 0 -1 178
            1364992399 -1156304603 354488697 -48408953 1755390655
            -1699151861 -786449958 -1361609777 -2 -3 165 758392636
            266878845 805207800 791576575 1878876159 -36876 -4261929
            -1296023960</internalNodes>
          <leafValues>
            -8.1583076715469360e-001 2.7918365597724915e-001
            -4.4537770748138428e-001 6.5591156482696533e-001</leafValues></_>
        <_>
          <internalNodes>
            1 2 7 121869999 -1382487777 -267153097 -757033333
            -1048467201 -1734188920 -685004049 -84100097 0 -1 177
            1531638615 -74212988 -1056957989 -682373049 -2132040961
            -1683488069 -1618994261 -6044485 -2 -3 227 221263092
            1069547519 -1073774597 1069465598 1073692151 1878753247
            1069498365 -1132710275</internalNodes>
          <leafValues>
            -8.1278240680694580e-001 5.2156668901443481e-001
            -5.9119009971618652e-001 8.5659724473953247e-001</leafValues></_>
        <_>
          <internalNodes>
            1 2 66 894780951 571852622 1250018263 2036437379 183214527
            -97943381 -963915606 -369103109 0 -1 100 1889243863
            -721350522 16847231 -45018878 -1697799701 -1114996583
            -1406430993 -14714321 -2 -3 114 1073748984 -796917746
            2143291521 1073659903 402653227 -1048575871 -2139094392
            214829952</internalNodes>
          <leafValues>
            -8.2333397865295410e-001 5.5034458637237549e-001
            -8.0112510919570923e-001 8.4449064731597900e-001</leafValues></_>
        <_>
          <internalNodes>
            1 2 59 168264191 1074974805 -1072592513 -914128699
            -807949571 -90691453 -523650837 -20326997 0 -1 200 -77917677
            -552425059 -1526701569 -8535593 -494222424 -75489242
            -402092626 -3152929 -2 -3 81 913587958 -33 -1281 2147287038
            -212994 2113863678 -402858113 -1944029390</internalNodes>
          <leafValues>
            -9.1441828012466431e-001 5.6960153579711914e-001
            -6.1689925193786621e-001 8.9115864038467407e-001</leafValues></_></weakClassifiers></_>
    <!-- stage 9 -->
    <_>
      <maxWeakCount>5</maxWeakCount>
      <stageThreshold>-2.0350174903869629e+000</stageThreshold>
      <weakClassifiers>
        <_>
          <internalNodes>
            1 2 24 -120590529 5493083 -1324166126 -775502069 1103712283
            1420336007 -926656243 1669560951 0 -1 142 -137103361
            -46022208 1166066075 -903155421 -334898055 -98528501
            -1709139681 -1131926565 -2 -3 242 805269375 -1 -65537
            -268435458 -32947 -1 -20625 1862139895</internalNodes>
          <leafValues>
            -8.2897859811782837e-001 1.0429447889328003e-001
            -4.5933014154434204e-001 6.7346936464309692e-001</leafValues></_>
        <_>
          <internalNodes>
            1 2 251 1436502951 -1080060073 -1184762369 -834354214
            -489461393 -91639592 -91390377 -835983983 0 -1 89 -547952165
            -1046593169 239883 -674631101 1841353363 1091477512
            -513029220 -805641746 -2 -3 52 -875503550 1082187781 2162688
            -436174842 1073812306 1728053248 458784 1881626694</internalNodes>
          <leafValues>
            -7.7460098266601563e-001 2.3301251232624054e-001
            -7.8249824047088623e-001 6.2865203619003296e-001</leafValues></_>
        <_>
          <internalNodes>
            1 2 251 1470054783 -1080060073 -1184762369 -549141542
            -489461433 -360075048 -91357609 -838081127 0 -1 108
            -587727897 -785874669 1090750932 -878829186 -1853848521
            -389831929 -385621341 -1944001758 -2 -3 250 956788031
            -1073807361 -4100 1879048191 81929 589824 -163979 1618991100</internalNodes>
          <leafValues>
            -8.6822313070297241e-001 1.3287420384585857e-002
            -6.4192396402359009e-001 7.8760570287704468e-001</leafValues></_>
        <_>
          <internalNodes>
            1 2 21 117914943 562815749 419502099 -1434287230 -904298449
            -1744272766 -91520976 -1102262246 0 -1 208 -128066481
            -921585957 856065 -788426493 -939417027 -1756757369
            -293485687 -739509105 -2 -3 25 -1060059444 1090617356
            822083853 1090650371 25231362 547357696 705167360 1359241762</internalNodes>
          <leafValues>
            -8.8804793357849121e-001 3.8193106651306152e-001
            -7.7292233705520630e-001 6.3334590196609497e-001</leafValues></_>
        <_>
          <internalNodes>
            1 2 0 641627151 -2011971397 -1563943365 34082823 -1968963237
            1744912520 -441966997 1985524690 0 -1 68 -247205661
            -795671935 -1877999469 -989133797 -2147450214 -1602190840
            -2143233877 -68962114 -2 -3 134 -1211858228 1225195845
            -2113515454 -2129215486 1361547928 -502003198 -2146219989
            -1035729406</internalNodes>
          <leafValues>
            -9.9026215076446533e-001 7.4799054861068726e-001
            -5.6620919704437256e-001 5.2767431735992432e-001</leafValues></_></weakClassifiers></_>
    <!-- stage 10 -->
    <_>
      <maxWeakCount>5</maxWeakCount>
      <stageThreshold>-2.3461232185363770e+000</stageThreshold>
      <weakClassifiers>
        <_>
          <internalNodes>
            1 2 224 621024561 -1085242357 285540693 -1113751393
            -257899849 -611606099 -1845493623 -1089889159 0 -1 202
            723361143 -1680606957 386945115 -41477902 -528246599
            -639532614 -1995406706 -1376792135 -2 -3 239 805269277
            2147155967 -1 2046820351 -98457 -268435489 -33587375
            1560149845</internalNodes>
          <leafValues>
            -7.8811883926391602e-001 4.1509434580802917e-002
            -5.7635468244552612e-001 7.6470589637756348e-001</leafValues></_>
        <_>
          <internalNodes>
            1 2 92 1373151382 428807511 -1258067581 -6344299 -1694356998
            -73815116 2135766974 -283114748 0 -1 162 -738723881
            2080100813 402719519 -11173669 419688619 -519338983
            -1698575398 -270550728 -2 -3 262 251596671 -1342177537
            -16529 -294715393 2147450719 -2 -822739115 1828650997</internalNodes>
          <leafValues>
            -7.4162262678146362e-001 3.1865987181663513e-001
            -5.6294447183609009e-001 6.2417197227478027e-001</leafValues></_>
        <_>
          <internalNodes>
            1 2 253 1878614207 -1499879295 2097209337 -291586593
            -788330682 -368999160 -1341529275 -7609723 0 -1 170
            -514075273 1967982354 1381143195 -9469477 -1444763205
            -776748534 -388938339 -68691318 -2 -3 54 -1073692413
            -1056702272 18 403718154 9962050 8388640 -1073530832
            268902403</internalNodes>
          <leafValues>
            -7.0830667018890381e-001 4.1924053430557251e-001
            -7.0562118291854858e-001 6.3080817461013794e-001</leafValues></_>
        <_>
          <internalNodes>
            1 2 37 1614295677 -666822512 -1862204931 1364574216
            1736992925 -89653117 -854832408 -342357432 0 -1 152
            1456505459 1025104156 135477 -15134542 -1048538388
            -166197237 -1198913303 -604273716 -2 -3 188 7998751
            -267454463 268435486 269615873 -2013263871 -524350 -8390908
            1307869045</internalNodes>
          <leafValues>
            -7.2779154777526855e-001 3.8046440482139587e-001
            -6.8770062923431396e-001 8.3945250511169434e-001</leafValues></_>
        <_>
          <internalNodes>
            1 2 207 5324829 1369151891 -1675542061 -82829100 -1994334206
            -1128546284 -1538760332 -373301023 0 -1 166 1439139199
            1401067237 -653180581 -754351666 337756859 -922746741
            -1156873557 -88080534 -2 -3 172 12583956 93865280 16781443
            856162384 1115684896 -2088697728 1073774776 402661376</internalNodes>
          <leafValues>
            -7.8616905212402344e-001 5.3055876493453979e-001
            -7.9232674837112427e-001 7.6814842224121094e-001</leafValues></_></weakClassifiers></_>
    <!-- stage 11 -->
    <_>
      <maxWeakCount>3</maxWeakCount>
      <stageThreshold>-1.1924754381179810e+000</stageThreshold>
      <weakClassifiers>
        <_>
          <internalNodes>
            1 2 62 825753591 -1351091233 -1 -1049 -28689 -524289 -5
            -301990201 0 -1 135 -787492077 2055962837 1359055297
            -7238871 -1996449585 -1190127599 -1743549605 -2144363897 -2
            -3 35 796794876 2147483647 -1 1073639415 1878949886
            1107296384 2147475595 2147434366</internalNodes>
          <leafValues>
            -7.6252722740173340e-001 -5.8020476251840591e-002
            -5.5844157934188843e-001 8.7179487943649292e-001</leafValues></_>
        <_>
          <internalNodes>
            1 2 203 904385373 500817937 -1333720823 -1083973488
            -938694411 -1398234870 631249071 -1107342709 0 -1 186
            432496631 929227648 1091158621 -1647517544 -2691617
            -124222517 -640058661 -329468970 -2 -3 51 -1073704876
            -784072688 301989888 -1056653053 1074317317 1439369218
            -938960880 822141558</internalNodes>
          <leafValues>
            -7.1000570058822632e-001 1.8268696963787079e-001
            -6.8643593788146973e-001 6.3139748573303223e-001</leafValues></_>
        <_>
          <internalNodes>
            1 2 3 202598819 943751342 -654192263 1175715982 1493961427
            -1190485871 -1706892361 -305145275 0 -1 192 -908353699
            -1319282585 -517959186 -613269352 -1154942449 -985046982
            -1180244788 -138451527 -2 -3 168 -1338339068 340328450 69889
            638128321 -1995366365 1678803136 1076076683 11005267</internalNodes>
          <leafValues>
            -7.7619940042495728e-001 2.8005754947662354e-001
            -6.6645866632461548e-001 5.6851989030838013e-001</leafValues></_></weakClassifiers></_>
    <!-- stage 12 -->
    <_>
      <maxWeakCount>3</maxWeakCount>
      <stageThreshold>-1.2521892786026001e+000</stageThreshold>
      <weakClassifiers>
        <_>
          <internalNodes>
            1 2 260 1340950399 -1 -268480513 -32769 -4105 -167805050
            -4194442 -4097 0 -1 63 1942485863 161038539 -1735937276
            -289001327 2022243207 -222385590 -122945790 -1493720377 -2
            -3 22 706969405 1056931647 -269484033 -269549650 2147385335
            -8388737 -1073776781 -150995083</internalNodes>
          <leafValues>
            -7.7584332227706909e-001 -1.3296903669834137e-001
            -3.7179487943649292e-001 8.7944358587265015e-001</leafValues></_>
        <_>
          <internalNodes>
            1 2 79 224141207 -676425699 -1727807041 -1660869097
            -1195901208 940508328 -1968555301 2102135562 0 -1 175
            1561921535 -388135906 1170344069 -89337373 1272299283
            1116573865 -661936072 -1140918109 -2 -3 221 -37761283
            771485175 -805376276 670040047 -536924196 134209527
            -16830512 217964542</internalNodes>
          <leafValues>
            -7.9382199048995972e-001 5.4346084594726563e-002
            -4.9137237668037415e-001 6.5116488933563232e-001</leafValues></_>
        <_>
          <internalNodes>
            1 2 20 269170455 -1824350077 -795705264 857657475 1749512969
            -2129624949 -712062330 -853737792 0 -1 194 -272368267
            -243415790 -738163971 -607469262 -103519846 890167729
            1791705044 -4986118 -2 -3 75 -18568730 -131081 -69643
            -1162220290 2013265917 -134414473 1978924888 208937316</internalNodes>
          <leafValues>
            -7.7846688032150269e-001 2.6034164428710938e-001
            -5.3069210052490234e-001 6.0011607408523560e-001</leafValues></_></weakClassifiers></_>
    <!-- stage 13 -->
    <_>
      <maxWeakCount>6</maxWeakCount>
      <stageThreshold>-2.5692124366760254e+000</stageThreshold>
      <weakClassifiers>
        <_>
          <internalNodes>
            1 2 120 1942859662 -8421377 2013069047 -1169 -16844801
            -132180 -16777217 -552609142 0 -1 2 1499306990 -552140661
            -788455058 -7401121 1786947403 -2029879160 -880059921
            1430628405 -2 -3 10 -25989406 2147483383 -1 1073676279
            -8388617 -1644232713 2147385215 2004168567</internalNodes>
          <leafValues>
            -8.3847284317016602e-001 -1.3020832836627960e-001
            -5.4385966062545776e-001 7.6323986053466797e-001</leafValues></_>
        <_>
          <internalNodes>
            1 2 254 1154960527 -1030516487 -1068265025 -363552493
            -774896797 -1308088925 -1615883712 -144969952 0 -1 109
            -235088179 -1689123692 -1719402025 -585805053 -1207215107
            -341606247 -1734228341 -538992490 -2 -3 158 1064615684
            335472636 2147467263 905969663 -16816131 1040171007
            -1073791619 788528852</internalNodes>
          <leafValues>
            -7.2841715812683105e-001 3.9704510569572449e-001
            -4.5191967487335205e-001 6.0133790969848633e-001</leafValues></_>
        <_>
          <internalNodes>
            1 2 163 1343009529 -717012829 285299609 889786427
            -1325356791 -1115127794 -1014449221 -1057789009 0 -1 102
            -200943409 -242188089 1616990406 -242434021 -267857782
            -1726214007 -1047993685 -1280351573 -2 -3 55 -750386114
            1350565889 1610613010 352321536 8931344 196608 2754605
            1112625167</internalNodes>
          <leafValues>
            -6.7736518383026123e-001 5.4766315221786499e-001
            -6.8245089054107666e-001 6.8230342864990234e-001</leafValues></_>
        <_>
          <internalNodes>
            1 2 60 1059318703 -375275195 -1037974110 -670920378
            -1985846897 142837896 -498374181 -118554821 0 -1 167
            -1050936325 1392759426 17338482 -649101139 -1878161669
            -402423605 -1463039857 -540282485 -2 -3 67 -1004676470
            1208029212 268435588 -2079195062 8487074 -1224670961
            -1979186901 8973322</internalNodes>
          <leafValues>
            -7.9868859052658081e-001 5.2018582820892334e-001
            -7.6450669765472412e-001 5.9999758005142212e-001</leafValues></_>
        <_>
          <internalNodes>
            1 2 0 642247594 -2120740287 -788283187 1244633829 1484951775
            167854120 814428290 1590338366 0 -1 209 -146545769
            -780070509 524547 -39710205 -2097051590 1090519058
            -1014988405 -2365301 -2 -3 57 -515541025 1426063491
            -788508272 276894345 67717195 1224753288 -2099558305
            1537305095</internalNodes>
          <leafValues>
            -9.5968472957611084e-001 6.0258495807647705e-001
            -5.4574817419052124e-001 4.6573886275291443e-001</leafValues></_>
        <_>
          <internalNodes>
            1 2 0 637938474 9441857 -788283316 2919141 1484918875
            134299690 814428176 484451126 0 -1 93 1342685519 -469663742
            1073807376 -901480440 101007 17170434 -2147122301 -913323429
            -2 -3 86 -243285856 1258488792 -1342177016 1399849224
            1555351776 -2101263872 -1071597030 -708371730</internalNodes>
          <leafValues>
            -9.9982988834381104e-001 9.5908200740814209e-001
            -5.6311815977096558e-001 3.1765431165695190e-001</leafValues></_></weakClassifiers></_>
    <!-- stage 14 -->
    <_>
      <maxWeakCount>7</maxWeakCount>
      <stageThreshold>-2.8637058734893799e+000</stageThreshold>
      <weakClassifiers>
        <_>
          <internalNodes>
            1 2 263 1325354879 -131073 -1 -524291 -40994 -2 -33562649
            -1056771 0 -1 71 1428001246 -1081473531 160237017 -548843511
            -1693853197 -4420925 -368538705 -467920074 -2 -3 131
            268971812 1073483792 -16777219 1073741822 -137 -805306369
            31981568 757112560</internalNodes>
          <leafValues>
            -7.6608186960220337e-001 -1.1413969099521637e-001
            -5.5263155698776245e-001 8.0880123376846313e-001</leafValues></_>
        <_>
          <internalNodes>
            1 2 233 2099199487 1777447197 -1828070145 1335444789
            -250793160 1557856321 -1146795328 28766169 0 -1 199
            -657066817 355680339 -1526691001 1295095183 -1014559556
            -1952956341 -1412861506 -271582465 -2 -3 157 729101140
            890573069 -2126495619 51413248 908128352 732562320
            -2011100582 445454523</internalNodes>
          <leafValues>
            -7.9222923517227173e-001 3.3330121636390686e-001
            -6.3796865940093994e-001 5.1005393266677856e-001</leafValues></_>
        <_>
          <internalNodes>
            1 2 255 1155351551 -963062311 -1195342702 -296028782
            -392991377 -2083016037 -509925264 -495010000 0 -1 156
            -396010925 1403177309 -1878800276 -1172520144 -1282941993
            209944779 726282218 -85810433 -2 -3 36 4459813 1075155338
            285247805 -1651337086 -1341968359 -394264310 -2012669950
            -360697824</internalNodes>
          <leafValues>
            -8.1382036209106445e-001 1.0732607543468475e-001
            -5.8108663558959961e-001 5.3675490617752075e-001</leafValues></_>
        <_>
          <internalNodes>
            1 2 83 926924671 -268439553 -1342242818 -65539 -8393251
            -143671297 -268961843 -86180779 0 -1 98 -674827565
            -787032249 -652847951 -514778877 180430495 -232029305
            1217018767 -372466980 -2 -3 104 536096493 -1073856545
            -1073758468 1060806650 2147319807 2139045887 796868604
            528365437</internalNodes>
          <leafValues>
            -7.0416456460952759e-001 3.1537973880767822e-001
            -5.0537317991256714e-001 8.0878287553787231e-001</leafValues></_>
        <_>
          <internalNodes>
            1 2 83 824130431 -302579563 -1897823788 -40218179 -125712231
            -1307860303 -390795125 -87181257 0 -1 96 1818132951
            -72166378 -1190882857 -1177403241 -433310273 -17727333
            -7435605 -927140197 -2 -3 201 800730879 1073725439
            -1342193666 -1207975938 2147454591 805134335 -1627441444
            79674807</internalNodes>
          <leafValues>
            -7.5022965669631958e-001 3.8656279444694519e-001
            -6.2648797035217285e-001 7.5723206996917725e-001</leafValues></_>
        <_>
          <internalNodes>
            1 2 45 958748059 -287059188 -1017642981 -387743724
            -2130060481 -938024829 -792473569 -27144313 0 -1 147
            1396040703 -114212781 -1656370860 -553000361 -367557720
            -123152381 -1966105685 -925124189 -2 -3 123 1745199744
            1376191878 16863640 -627891647 -1996422481 -1184751600
            1317023907 1577663682</internalNodes>
          <leafValues>
            -9.1787767410278320e-001 4.5570817589759827e-001
            -5.8958065509796143e-001 5.9702175855636597e-001</leafValues></_>
        <_>
          <internalNodes>
            1 2 0 152328268 671473825 1214252507 1082429954 1094322347
            1229029899 17080650 1821426322 0 -1 78 -769670769 -662683643
            -1878978552 -645545728 -2142535541 134217728 -1861154165
            -846602045 -2 -3 195 67191389 -141467629 -1055849509
            -268278776 -1836572413 1468006586 1082204857 -671431040</internalNodes>
          <leafValues>
            -9.9249112606048584e-001 9.0263211727142334e-001
            -5.9540826082229614e-001 4.4312748312950134e-001</leafValues></_></weakClassifiers></_>
    <!-- stage 15 -->
    <_>
      <maxWeakCount>7</maxWeakCount>
      <stageThreshold>-2.6312782764434814e+000</stageThreshold>
      <weakClassifiers>
        <_>
          <internalNodes>
            1 2 23 352581439 -1412429601 -1652341321 -660815860
            -1596992865 -377470193 -225721701 -285482001 0 -1 42
            -748948493 1363444258 138477714 -9662321 -133973507
            -2128312187 -757757948 -1024986301 -2 -3 229 619986805
            -1073844617 -16385 -1614938113 -4097 -12582913 -1073840260
            1073577852</internalNodes>
          <leafValues>
            -7.3942095041275024e-001 6.8649887107312679e-003
            -4.5669290423393250e-001 7.7099233865737915e-001</leafValues></_>
        <_>
          <internalNodes>
            1 2 143 1347723438 -188165877 1342274799 -44808157
            2049096349 -1148418816 -1516594200 526185376 0 -1 115
            1365107692 -726628387 -771616675 -1223597303 46848693
            -1447559030 -1230296321 -1350717238 -2 -3 181 -799419196
            142676499 1342703629 672170241 1619034379 344002688
            537051714 9417747</internalNodes>
          <leafValues>
            -7.1965390443801880e-001 1.7040419578552246e-001
            -8.6448103189468384e-001 5.1411551237106323e-001</leafValues></_>
        <_>
          <internalNodes>
            1 2 110 1979577054 -481823777 -2130476961 670794010
            -561528513 -10753654 -1541174370 -13718966 0 -1 151
            1480702959 2106658837 285540701 2131841051 -1895648853
            2089320451 -1987345762 -1930124542 -2 -3 6 1069449007
            -1343225857 -17 -1342243073 -8195 2147483519 -134217857
            1241317362</internalNodes>
          <leafValues>
            -7.6173436641693115e-001 2.4002725258469582e-002
            -5.8711999654769897e-001 7.2232508659362793e-001</leafValues></_>
        <_>
          <internalNodes>
            1 2 119 1610461198 899224023 25231867 -476626614 -645903154
            -1844337574 -1476146806 723690182 0 -1 117 -481889571
            -782434153 -1660870079 1904820235 463045053 -1688010712
            -518485809 -104109829 -2 -3 230 754270007 804962294 -65
            -196609 1065172990 -1342185473 -655497 1047896061</internalNodes>
          <leafValues>
            -7.4359065294265747e-001 4.8009163141250610e-001
            -4.6199855208396912e-001 6.2911689281463623e-001</leafValues></_>
        <_>
          <internalNodes>
            1 2 27 790080817 -1568521593 -1878996973 -536182711
            -262634999 69369865 -410085234 -809206649 0 -1 184
            -749616129 -1725882032 230711 1025839171 -1878351637
            -752807928 -100611181 -342894693 -2 -3 53 -1005535101
            -536866468 270532888 6030400 8390753 838860800 134217763
            1124270081</internalNodes>
          <leafValues>
            -8.3939069509506226e-001 7.4275386333465576e-001
            -6.7187565565109253e-001 6.0208916664123535e-001</leafValues></_>
        <_>
          <internalNodes>
            1 2 0 33571335 43147264 -2146402278 1212172421 269101602
            601391150 102760449 452989041 0 -1 91 -788315749 1342177280
            8388611 -528416766 -1879015293 -1023344639 272695297
            -858814933 -2 -3 38 1074819989 -376962815 -1996386020
            -716177325 1497958903 -1199044567 -930477923 -911843190</internalNodes>
          <leafValues>
            -9.9935311079025269e-001 1. -5.3860419988632202e-001
            4.0990880131721497e-001</leafValues></_>
        <_>
          <internalNodes>
            1 2 0 33571335 43148352 -2146402278 1212172421 269117986
            601391150 102760449 452989041 0 -1 103 -796667057 1896880648
            153092240 -1794031601 8915087 -2004877310 -1920827353
            -116948854 -2 -3 234 -657723217 1628639378 8392960
            -523869878 1090592801 -218103786 -1023311197 -1528301222</internalNodes>
          <leafValues>
            -9.9959981441497803e-001 8.5714381933212280e-001
            -5.8998209238052368e-001 2.6180171966552734e-001</leafValues></_></weakClassifiers></_>
    <!-- stage 16 -->
    <_>
      <maxWeakCount>7</maxWeakCount>
      <stageThreshold>-2.8193972110748291e+000</stageThreshold>
      <weakClassifiers>
        <_>
          <internalNodes>
            1 2 264 1576497119 2147483647 -1 -3 -106513 -2049 -9
            -33554433 0 -1 225 2046252443 -577023727 1380291575
            -53519533 328843541 -149635072 -1156259186 -17179720 -2 -3
            33 2147237884 -68091840 2147483647 -1073844233 2147450879
            2139062271 -2147483009 1039612961</internalNodes>
          <leafValues>
            -7.0105260610580444e-001 -4.1186161339282990e-002
            -5.7999998331069946e-001 8.2698959112167358e-001</leafValues></_>
        <_>
          <internalNodes>
            1 2 232 -925679397 1205067778 -1073737702 -342596350
            -645831691 -100655038 -535561989 71826347 0 -1 237
            -1067719721 558088283 -503246697 -1239953406 -805076809
            -1610395484 -799706997 -572527958 -2 -3 149 34354421
            877283735 -1877454673 278143963 270614795 -931099989
            -1954526545 763364813</internalNodes>
          <leafValues>
            -7.5640493631362915e-001 3.0956110358238220e-001
            -6.4109033346176147e-001 5.0245153903961182e-001</leafValues></_>
        <_>
          <internalNodes>
            1 2 64 1040708915 -1453145843 -1035791600 -831926119
            -2004096929 1879594056 -1362515485 -270073925 0 -1 125
            -510662485 -1006352331 -2146201079 -1176395505 1430511754
            -513113939 -788042869 -756060529 -2 -3 84 1178902670
            1234207016 148 -267321086 805388288 1146259646 -1464728822
            639148588</internalNodes>
          <leafValues>
            -6.4618921279907227e-001 3.8355726003646851e-001
            -5.7674199342727661e-001 6.0209280252456665e-001</leafValues></_>
        <_>
          <internalNodes>
            1 2 259 1099631775 1364557954 -1325219835 -518684606
            1073940870 -2139027317 -268328312 -377501727 0 -1 197
            -255339809 328550835 822722769 -677179105 -867106325
            -1442344856 192409 -335720801 -2 -3 159 39067920 335577352
            16793684 344016907 -1977614160 964689929 -2113923063
            730334849</internalNodes>
          <leafValues>
            -7.0652770996093750e-001 5.4098927974700928e-001
            -7.3795771598815918e-001 6.9385719299316406e-001</leafValues></_>
        <_>
          <internalNodes>
            1 2 145 1414866879 -1116106607 587584397 -183910065
            -1198943283 -973404023 -377175157 -1468149949 0 -1 139
            1901068267 1929481911 -2113912817 -217074989 -929733735
            -1721431680 -349513077 -402662710 -2 -3 213 -350938000
            -588382484 -268554688 -709514268 -604074162 -688980121
            2013017266 -1827354826</internalNodes>
          <leafValues>
            -7.9187089204788208e-001 4.9291574954986572e-001
            -3.5931760072708130e-001 7.2674328088760376e-001</leafValues></_>
        <_>
          <internalNodes>
            1 2 80 429913787 -1868857193 -1065254504 -920977400
            -1206679118 -355336063 -257842559 -304377861 0 -1 176
            -312222725 -578334437 -1054702433 -578093038 -1744062977
            -132935520 -489496017 -69220097 -2 -3 243 -822145877
            804257791 -1 1287581690 786497673 2130575359 1073823762
            5758978</internalNodes>
          <leafValues>
            -8.5979896783828735e-001 8.2652300596237183e-001
            -6.0270518064498901e-001 7.0411735773086548e-001</leafValues></_>
        <_>
          <internalNodes>
            1 2 0 593514503 139558914 823185532 1080229891 59375688
            1514277504 21127899 223396017 0 -1 183 -1056067073
            1080492057 16777499 -553648091 -897005381 -805306240
            -2138963829 -543457149 -2 -3 228 1661301095 -92192639
            -788151844 -305102837 -2111696701 -1071513439 1218152961
            125661552</internalNodes>
          <leafValues>
            -9.8734575510025024e-001 1. -6.3810974359512329e-001
            3.7737548351287842e-001</leafValues></_></weakClassifiers></_>
    <!-- stage 17 -->
    <_>
      <maxWeakCount>7</maxWeakCount>
      <stageThreshold>-2.5913014411926270e+000</stageThreshold>
      <weakClassifiers>
        <_>
          <internalNodes>
            1 2 252 1486163935 -249654637 -1063910951 -497214631
            -2116996293 -217454511 -133593019 -88105504 0 -1 77
            -740301697 1637206029 -803404667 11133646 1778618350
            -104660351 -775779895 -204017521 -2 -3 173 1009007445
            939454463 2147450877 -1073741827 -134219793 -1073741827
            1073709053 -1376912012</internalNodes>
          <leafValues>
            -7.8005117177963257e-001 -2.8571428731083870e-002
            -3.6179774999618530e-001 6.7596280574798584e-001</leafValues></_>
        <_>
          <internalNodes>
            1 2 13 -884751885 -1069186605 -1069448866 -581462970
            -2147136081 -124026744 -1069376446 -135793801 0 -1 141
            -673522953 -52869942 1371603396 -1948773606 -926382516
            1535805573 -1983067699 -1210941227 -2 -3 124 -1862006438
            1090670618 1879081238 1078042634 -2147123005 1075838976
            1619057672 42468136</internalNodes>
          <leafValues>
            -6.7652326822280884e-001 1.9131995737552643e-001
            -5.3842413425445557e-001 5.8697706460952759e-001</leafValues></_>
        <_>
          <internalNodes>
            1 2 256 40307711 -649471721 -2129477349 1900216330
            -1068250733 -2117959680 -498638848 -102962364 0 -1 116
            -639140983 1414679507 -2129035006 1498374647 -2146842405
            -611782529 1487259721 -31084561 -2 -3 205 549748533
            -1026293183 67109918 -1400614781 441 1708687504 9126313
            69210748</internalNodes>
          <leafValues>
            -7.2184330224990845e-001 3.3550235629081726e-001
            -6.8473887443542480e-001 5.4567170143127441e-001</leafValues></_>
        <_>
          <internalNodes>
            1 2 149 802813 -853502951 -1862170461 2091917575 1520073079
            -1180532603 -1341318440 1508951037 0 -1 85 -238887969
            270204951 134285323 252416017 -1576998723 -1995814695
            -1719500629 -1617181813 -2 -3 241 1405383029 612634636
            562135183 1326592284 -225357296 -1507753968 -1047915967
            1851271813</internalNodes>
          <leafValues>
            -8.4618765115737915e-001 7.4076741933822632e-001
            -5.9837633371353149e-001 5.8294916152954102e-001</leafValues></_>
        <_>
          <internalNodes>
            1 2 111 1532871678 -732311058 16863837 -942014113
            -2124967541 -914243437 -947140129 -879776814 0 -1 106
            -238629379 -686960430 217593 -987459428 -1970365003
            -599715816 1661575661 -284342040 -2 -3 69 1343263764
            -1795125120 1073781081 32785 8438788 -1878900727 -2147481344
            822618304</internalNodes>
          <leafValues>
            -7.6170778274536133e-001 1.7325659096240997e-001
            -7.5601327419281006e-001 6.3344091176986694e-001</leafValues></_>
        <_>
          <internalNodes>
            1 2 249 887311677 -742190829 -1861713465 -40691438
            -393672192 8470684 -100623667 -702160357 0 -1 128 -716211313
            1904792384 -2010943481 -1510785009 1359388830 -1065156605
            -1060272038 -14093 -2 -3 88 249638534 -16777218 -81922
            2062331902 -1342310444 1610448820 -940099655 2111112564</internalNodes>
          <leafValues>
            -8.5387307405471802e-001 4.6491169929504395e-001
            -4.3472737073898315e-001 6.4380943775177002e-001</leafValues></_>
        <_>
          <internalNodes>
            1 2 44 625206247 1357169024 -670563948 -779091950 1254705599
            -477429611 -1467948780 -1033513037 0 -1 129 -766512933
            -654221816 -1870576132 -200785628 -1979415367 1082306952
            545893091 -554050686 -2 -3 87 8519752 1900281882 -1879048059
            420020506 -905794931 -1988018165 -335544213 486998016</internalNodes>
          <leafValues>
            -9.4008636474609375e-001 2.5589293241500854e-001
            -6.0493785142898560e-001 4.6337497234344482e-001</leafValues></_></weakClassifiers></_>
    <!-- stage 18 -->
    <_>
      <maxWeakCount>10</maxWeakCount>
      <stageThreshold>-2.8645887374877930e+000</stageThreshold>
      <weakClassifiers>
        <_>
          <internalNodes>
            1 2 29 623886103 -1650552169 344073 -1616658138 -930380401
            1619428867 -208811361 -270541889 0 -1 140 -639652788
            -246381710 809666086 2010022702 -1713447960 198483969
            -1454603610 -2015688694 -2 -3 220 -302027562 671088639 -257
            268435455 1845452798 399114241 1879039476 620752767</internalNodes>
          <leafValues>
            -7.3137974739074707e-001 -5.5258467793464661e-002
            -5.3439152240753174e-001 7.1561050415039063e-001</leafValues></_>
        <_>
          <internalNodes>
            1 2 122 1419018380 -754806459 419496140 1338171699
            -1584725784 -1434222053 -659945158 1674477624 0 -1 130
            -716050977 -788021233 -2139029217 -1220015868 -2105507317
            -1207889461 -2031572403 -548957594 -2 -3 28 -1041050574
            1361084562 67739 -2063531901 -763215357 1082654752
            -1069000604 1762083426</internalNodes>
          <leafValues>
            -7.5507581233978271e-001 2.0021753013134003e-001
            -5.4024153947830200e-001 5.1028406620025635e-001</leafValues></_>
        <_>
          <internalNodes>
            1 2 266 248447193 -1894692785 -1068396131 -1140531198
            -343193427 -519405373 -74741516 -143660253 0 -1 146
            -733226497 -1861074790 -1811856903 965773635 -2136688485
            -837811830 -1942898533 -11545425 -2 -3 224 610548529
            1069416383 -1090535617 -1182694914 -2013001585 -805308407
            1073709044 419233652</internalNodes>
          <leafValues>
            -6.0315853357315063e-001 5.7226151227951050e-001
            -4.2097842693328857e-001 6.9784444570541382e-001</leafValues></_>
        <_>
          <internalNodes>
            1 2 262 805260919 -257 -16777217 -25165825 2147450751 -2
            -554172560 -268435458 0 -1 226 -1814439843 -721293247
            -1878982501 -33423231 -351233921 -1009317632 -1342093130
            -143027942 -2 -3 229 607420213 -1611239425 -1073758209
            -1078394881 2146926583 -1 -1208057857 804552564</internalNodes>
          <leafValues>
            -6.8733519315719604e-001 2.8939020633697510e-001
            -3.1302464008331299e-001 7.6750439405441284e-001</leafValues></_>
        <_>
          <internalNodes>
            1 2 264 1101743563 -148565613 1359356172 -1647082051
            -788326133 -343866703 -2145281417 -69273742 0 -1 109
            -45748003 -1571340077 -603385827 1728118933 -1861621675
            -1445756918 168490 -812416994 -2 -3 235 1073957117
            -2147352512 1073807381 16384 805306511 1342214144 17907840
            235131091</internalNodes>
          <leafValues>
            -7.4554699659347534e-001 4.1576120257377625e-001
            -5.4562723636627197e-001 6.9600409269332886e-001</leafValues></_>
        <_>
          <internalNodes>
            1 2 16 722391343 -783232757 269077978 305184842 1351041289
            -624902008 -802512882 -169024993 0 -1 72 1913094589
            -1400864317 17514579 -486276975 -645342053 -418723699
            -2146853881 -208667724 -2 -3 73 421021700 1069842704
            1073790993 402653443 -402610032 1061716104 285769739
            696418441</internalNodes>
          <leafValues>
            -8.6682778596878052e-001 3.4527727961540222e-001
            -7.0332700014114380e-001 5.8268851041793823e-001</leafValues></_>
        <_>
          <internalNodes>
            1 2 112 616642232 186581195 1158697848 -1828445799
            1099542737 -312868736 -901014576 1652632098 0 -1 210
            -623904381 -251551537 268501011 -775609717 -2140493653
            -1308475256 -2133817106 -640700245 -2 -3 179 -669663023
            931611731 4376 -1417609152 1073838090 2013429760 939563138
            180733954</internalNodes>
          <leafValues>
            -9.6159148216247559e-001 6.4543002843856812e-001
            -4.9930024147033691e-001 5.0577795505523682e-001</leafValues></_>
        <_>
          <internalNodes>
            1 2 155 276105860 -1256631740 -414095074 2127626515
            147286320 1671430281 -1546423304 -1530519392 0 -1 217
            -780963701 -773340271 269553997 -721222894 -2129919871
            1653243932 -2008923749 -2366225 -2 -3 126 -891517850
            1904493192 1090535516 -2058743780 8407059 144244752
            -1071116148 235088256</internalNodes>
          <leafValues>
            -9.8042017221450806e-001 6.2096923589706421e-001
            -5.8856892585754395e-001 4.3670853972434998e-001</leafValues></_>
        <_>
          <internalNodes>
            1 2 40 369629836 -769392605 69894 1560616963 19443752
            1308884992 168296601 -2146104318 0 -1 138 -780806185
            2055409686 147557 1368457219 -2139082494 -1602092791
            536879505 -1141908517 -2 -3 180 107296904 -2146238321
            -1845444203 -1878865600 1107482110 1495138700 1132496965
            629678312</internalNodes>
          <leafValues>
            -9.9550521373748779e-001 7.0250827074050903e-001
            -6.8985766172409058e-001 4.7126939892768860e-001</leafValues></_>
        <_>
          <internalNodes>
            1 2 240 1443451255 -2121203695 -788528896 570902784
            -121634254 -1608450045 1619986784 1409388004 0 -1 95
            -658124343 -654308719 33555089 -1878704122 -1828158309
            -2012741496 -1056764791 -125067125 -2 -3 161 1893524520
            1869185006 -1064981 -231899266 -8589340 -403308700
            -151650312 370869260</internalNodes>
          <leafValues>
            -9.9948894977569580e-001 8.2702362537384033e-001
            -4.1337302327156067e-001 7.0324403047561646e-001</leafValues></_></weakClassifiers></_>
    <!-- stage 19 -->
    <_>
      <maxWeakCount>8</maxWeakCount>
      <stageThreshold>-2.6514158248901367e+000</stageThreshold>
      <weakClassifiers>
        <_>
          <internalNodes>
            1 2 261 1272926199 1427739033 -788370532 -1085550399
            -938987473 -1679612915 -242513822 -23076325 0 -1 211
            -540018829 -699957045 -2029907583 -1333243825 -1048122982
            -1867454847 -1480078929 -109061493 -2 -3 32 -49289
            -1099284674 -16385 1065299839 2147450431 2147450751
            2139062142 2143256574</internalNodes>
          <leafValues>
            -6.5696465969085693e-001 3.2876712083816528e-001
            -4.8640483617782593e-001 6.2239581346511841e-001</leafValues></_>
        <_>
          <internalNodes>
            1 2 84 1442623118 -891715391 8460622 -1172438712 -1341939525
            580553050 -2119858389 -1430214084 0 -1 154 -817114225
            -56983149 -919531385 -881876657 -477893951 221937801
            -1992054205 -608990978 -2 -3 26 -1060912494 285327433
            -2013227502 -2097151855 675422834 -2147475454 -2080300492
            18039395</internalNodes>
          <leafValues>
            -7.7536386251449585e-001 2.0619262754917145e-001
            -7.2910839319229126e-001 5.0039458274841309e-001</leafValues></_>
        <_>
          <internalNodes>
            1 2 94 1694801963 1368586381 1422987671 -1619258158
            -1340356370 1218037823 1120228258 1436697640 0 -1 204
            -499805233 -137375437 -1853832501 -138264541 -2136833879
            -1048434679 -2012731141 -102715732 -2 -3 247 1075529741
            1074905235 16792012 -457161702 -1743191550 1350598664
            177327217 1691059746</internalNodes>
          <leafValues>
            -7.5871366262435913e-001 2.6751771569252014e-001
            -7.9181939363479614e-001 4.6761643886566162e-001</leafValues></_>
        <_>
          <internalNodes>
            1 2 214 1308447871 -3 -16777477 -1275265281 -8196 2139095039
            -16777220 1300233983 0 -1 193 -779103309 -1023229943
            -1811890158 -578813797 -794064721 -1677457239 -1035039473
            -24657726 -2 -3 48 527695265 -1355808769 -388 -521142289
            -139 2130706431 -524449 -675283114</internalNodes>
          <leafValues>
            -7.2550946474075317e-001 3.9853844046592712e-001
            -2.3487119376659393e-001 8.6998569965362549e-001</leafValues></_>
        <_>
          <internalNodes>
            1 2 182 2138666621 1728053111 1876916987 -335577097
            -279445523 -1516701057 -294780930 -100799063 0 -1 113
            -1680708557 1157992591 -1861087793 -584641069 -613711221
            -628522365 -612153254 -672338018 -2 -3 31 -783974364
            67698688 16777230 16842753 -1610612221 386 5 874745091</internalNodes>
          <leafValues>
            -7.1975076198577881e-001 2.9058578610420227e-001
            -7.6746135950088501e-001 8.0219221115112305e-001</leafValues></_>
        <_>
          <internalNodes>
            1 2 153 55090389 -377827192 -1514176425 -1651326563
            553883375 -1364295660 -1341353681 -67445528 0 -1 101
            -742264325 -788528238 1358959743 -715935353 -1466969605
            -376798040 -534240597 -80133430 -2 -3 248 784244735
            801112041 -1073807362 788312060 -1073742339 -268435457 -137
            -2064384144</internalNodes>
          <leafValues>
            -7.6604944467544556e-001 4.2539033293724060e-001
            -5.5657619237899780e-001 6.7605471611022949e-001</leafValues></_>
        <_>
          <internalNodes>
            1 2 43 67294038 -2004561785 304201817 1573791808 285442458
            -2122309498 -2004352426 1848033617 0 -1 174 -662666369
            -1156513531 -2029748003 1372915747 -2134321061 -1919221743
            -2146729960 866181635 -2 -3 223 426787185 475303964 102425
            -1945567232 -2147433855 504168448 1073811738 113764365</internalNodes>
          <leafValues>
            -9.7371691465377808e-001 3.6382045596837997e-002
            -6.8927288055419922e-001 2.9476946592330933e-001</leafValues></_>
        <_>
          <internalNodes>
            1 2 0 17825858 -1945567111 1074905090 4259840 1073872969
            436535303 65664 1377306641 0 -1 144 1275445471 25165907
            1052929 1392836613 164545 -2113863678 1073860631 -2090926057
            -2 -3 236 -930947037 689505600 2376050 -1064022016
            -805195504 806387712 1816365634 -1598579813</internalNodes>
          <leafValues>
            -9.9985718727111816e-001 9.5521146059036255e-001
            -6.6173231601715088e-001 1.8721957504749298e-001</leafValues></_></weakClassifiers></_></stages>
  <features>
    <_>
      <rect>
        0 0 1 1</rect></_>
    <_>
      <rect>
        0 0 5 10</rect></_>
    <_>
      <rect>
        0 0 10 6</rect></_>
    <_>
      <rect>
        0 1 2 3</rect></_>
    <_>
      <rect>
        0 1 6 7</rect></_>
    <_>
      <rect>
        0 1 6 10</rect></_>
    <_>
      <rect>
        0 2 1 1</rect></_>
    <_>
      <rect>
        0 2 1 2</rect></_>
    <_>
      <rect>
        0 3 1 3</rect></_>
    <_>
      <rect>
        0 3 4 6</rect></_>
    <_>
      <rect>
        0 3 6 9</rect></_>
    <_>
      <rect>
        0 4 1 3</rect></_>
    <_>
      <rect>
        0 4 2 6</rect></_>
    <_>
      <rect>
        0 4 3 6</rect></_>
    <_>
      <rect>
        0 5 4 8</rect></_>
    <_>
      <rect>
        0 5 10 9</rect></_>
    <_>
      <rect>
        0 6 1 3</rect></_>
    <_>
      <rect>
        0 7 5 7</rect></_>
    <_>
      <rect>
        0 8 1 1</rect></_>
    <_>
      <rect>
        0 8 7 7</rect></_>
    <_>
      <rect>
        0 9 1 7</rect></_>
    <_>
      <rect>
        0 10 1 1</rect></_>
    <_>
      <rect>
        0 10 1 2</rect></_>
    <_>
      <rect>
        0 11 1 1</rect></_>
    <_>
      <rect>
        0 11 4 7</rect></_>
    <_>
      <rect>
        0 11 6 4</rect></_>
    <_>
      <rect>
        0 13 4 4</rect></_>
    <_>
      <rect>
        0 14 1 2</rect></_>
    <_>
      <rect>
        0 14 3 5</rect></_>
    <_>
      <rect>
        0 15 1 2</rect></_>
    <_>
      <rect>
        0 15 4 3</rect></_>
    <_>
      <rect>
        0 17 3 2</rect></_>
    <_>
      <rect>
        0 17 3 5</rect></_>
    <_>
      <rect>
        0 20 8 4</rect></_>
    <_>
      <rect>
        0 23 7 3</rect></_>
    <_>
      <rect>
        0 23 8 3</rect></_>
    <_>
      <rect>
        0 25 2 2</rect></_>
    <_>
      <rect>
        0 26 5 2</rect></_>
    <_>
      <rect>
        0 26 6 2</rect></_>
    <_>
      <rect>
        1 0 2 7</rect></_>
    <_>
      <rect>
        1 0 10 5</rect></_>
    <_>
      <rect>
        1 1 2 3</rect></_>
    <_>
      <rect>
        1 1 2 8</rect></_>
    <_>
      <rect>
        1 2 3 2</rect></_>
    <_>
      <rect>
        1 3 2 2</rect></_>
    <_>
      <rect>
        1 4 1 2</rect></_>
    <_>
      <rect>
        1 5 7 9</rect></_>
    <_>
      <rect>
        1 7 10 6</rect></_>
    <_>
      <rect>
        1 8 1 1</rect></_>
    <_>
      <rect>
        1 8 3 4</rect></_>
    <_>
      <rect>
        1 8 4 6</rect></_>
    <_>
      <rect>
        1 9 10 7</rect></_>
    <_>
      <rect>
        1 12 4 5</rect></_>
    <_>
      <rect>
        1 13 3 2</rect></_>
    <_>
      <rect>
        1 14 3 2</rect></_>
    <_>
      <rect>
        1 17 3 5</rect></_>
    <_>
      <rect>
        1 17 10 5</rect></_>
    <_>
      <rect>
        1 20 3 4</rect></_>
    <_>
      <rect>
        1 22 4 3</rect></_>
    <_>
      <rect>
        2 0 1 1</rect></_>
    <_>
      <rect>
        2 3 1 2</rect></_>
    <_>
      <rect>
        2 17 10 5</rect></_>
    <_>
      <rect>
        3 6 1 1</rect></_>
    <_>
      <rect>
        3 8 1 1</rect></_>
    <_>
      <rect>
        3 10 1 1</rect></_>
    <_>
      <rect>
        4 0 6 8</rect></_>
    <_>
      <rect>
        4 6 1 1</rect></_>
    <_>
      <rect>
        4 7 9 6</rect></_>
    <_>
      <rect>
        4 8 2 3</rect></_>
    <_>
      <rect>
        4 13 8 6</rect></_>
    <_>
      <rect>
        4 26 6 2</rect></_>
    <_>
      <rect>
        5 1 9 4</rect></_>
    <_>
      <rect>
        5 7 7 7</rect></_>
    <_>
      <rect>
        5 23 9 3</rect></_>
    <_>
      <rect>
        6 0 7 3</rect></_>
    <_>
      <rect>
        6 4 5 8</rect></_>
    <_>
      <rect>
        6 8 3 5</rect></_>
    <_>
      <rect>
        6 13 2 3</rect></_>
    <_>
      <rect>
        6 17 1 3</rect></_>
    <_>
      <rect>
        6 26 3 2</rect></_>
    <_>
      <rect>
        7 2 1 1</rect></_>
    <_>
      <rect>
        7 2 4 6</rect></_>
    <_>
      <rect>
        7 2 6 3</rect></_>
    <_>
      <rect>
        7 3 1 1</rect></_>
    <_>
      <rect>
        7 4 6 4</rect></_>
    <_>
      <rect>
        7 9 4 3</rect></_>
    <_>
      <rect>
        7 16 1 2</rect></_>
    <_>
      <rect>
        7 23 4 3</rect></_>
    <_>
      <rect>
        7 24 5 1</rect></_>
    <_>
      <rect>
        8 0 2 3</rect></_>
    <_>
      <rect>
        8 0 5 7</rect></_>
    <_>
      <rect>
        8 3 2 6</rect></_>
    <_>
      <rect>
        8 4 4 5</rect></_>
    <_>
      <rect>
        8 5 2 6</rect></_>
    <_>
      <rect>
        8 5 3 2</rect></_>
    <_>
      <rect>
        8 9 2 2</rect></_>
    <_>
      <rect>
        8 9 3 2</rect></_>
    <_>
      <rect>
        8 9 4 2</rect></_>
    <_>
      <rect>
        8 10 4 5</rect></_>
    <_>
      <rect>
        8 11 8 7</rect></_>
    <_>
      <rect>
        8 12 4 2</rect></_>
    <_>
      <rect>
        8 13 4 3</rect></_>
    <_>
      <rect>
        8 15 1 1</rect></_>
    <_>
      <rect>
        8 19 1 1</rect></_>
    <_>
      <rect>
        8 20 2 4</rect></_>
    <_>
      <rect>
        8 23 4 3</rect></_>
    <_>
      <rect>
        8 24 2 1</rect></_>
    <_>
      <rect>
        9 0 5 9</rect></_>
    <_>
      <rect>
        9 1 2 6</rect></_>
    <_>
      <rect>
        9 1 5 3</rect></_>
    <_>
      <rect>
        9 1 5 7</rect></_>
    <_>
      <rect>
        9 1 5 9</rect></_>
    <_>
      <rect>
        9 7 5 5</rect></_>
    <_>
      <rect>
        9 8 5 5</rect></_>
    <_>
      <rect>
        9 8 5 8</rect></_>
    <_>
      <rect>
        9 9 5 2</rect></_>
    <_>
      <rect>
        9 10 2 5</rect></_>
    <_>
      <rect>
        9 14 2 2</rect></_>
    <_>
      <rect>
        9 29 4 1</rect></_>
    <_>
      <rect>
        10 1 4 6</rect></_>
    <_>
      <rect>
        10 2 4 4</rect></_>
    <_>
      <rect>
        10 2 5 2</rect></_>
    <_>
      <rect>
        10 3 4 2</rect></_>
    <_>
      <rect>
        10 4 4 5</rect></_>
    <_>
      <rect>
        10 5 4 8</rect></_>
    <_>
      <rect>
        10 7 1 2</rect></_>
    <_>
      <rect>
        10 8 3 2</rect></_>
    <_>
      <rect>
        10 10 4 4</rect></_>
    <_>
      <rect>
        10 12 1 3</rect></_>
    <_>
      <rect>
        10 19 1 1</rect></_>
    <_>
      <rect>
        10 20 4 2</rect></_>
    <_>
      <rect>
        10 26 7 2</rect></_>
    <_>
      <rect>
        11 0 4 4</rect></_>
    <_>
      <rect>
        11 0 7 4</rect></_>
    <_>
      <rect>
        11 2 3 6</rect></_>
    <_>
      <rect>
        11 4 7 6</rect></_>
    <_>
      <rect>
        11 4 7 9</rect></_>
    <_>
      <rect>
        11 5 7 3</rect></_>
    <_>
      <rect>
        11 6 3 4</rect></_>
    <_>
      <rect>
        11 15 1 2</rect></_>
    <_>
      <rect>
        11 20 1 1</rect></_>
    <_>
      <rect>
        11 21 1 2</rect></_>
    <_>
      <rect>
        11 23 5 2</rect></_>
    <_>
      <rect>
        12 0 3 2</rect></_>
    <_>
      <rect>
        12 0 4 4</rect></_>
    <_>
      <rect>
        12 1 6 6</rect></_>
    <_>
      <rect>
        12 13 3 3</rect></_>
    <_>
      <rect>
        12 18 2 2</rect></_>
    <_>
      <rect>
        12 28 2 1</rect></_>
    <_>
      <rect>
        12 29 1 1</rect></_>
    <_>
      <rect>
        12 29 4 1</rect></_>
    <_>
      <rect>
        13 1 5 5</rect></_>
    <_>
      <rect>
        13 8 4 2</rect></_>
    <_>
      <rect>
        13 10 1 1</rect></_>
    <_>
      <rect>
        13 10 3 2</rect></_>
    <_>
      <rect>
        13 12 2 1</rect></_>
    <_>
      <rect>
        13 20 1 1</rect></_>
    <_>
      <rect>
        13 23 3 3</rect></_>
    <_>
      <rect>
        13 23 6 3</rect></_>
    <_>
      <rect>
        13 26 4 2</rect></_>
    <_>
      <rect>
        13 27 4 1</rect></_>
    <_>
      <rect>
        14 1 3 3</rect></_>
    <_>
      <rect>
        14 1 3 9</rect></_>
    <_>
      <rect>
        14 1 6 5</rect></_>
    <_>
      <rect>
        14 1 6 10</rect></_>
    <_>
      <rect>
        14 5 1 2</rect></_>
    <_>
      <rect>
        14 8 1 2</rect></_>
    <_>
      <rect>
        14 9 2 3</rect></_>
    <_>
      <rect>
        14 10 6 5</rect></_>
    <_>
      <rect>
        14 11 4 3</rect></_>
    <_>
      <rect>
        14 12 3 2</rect></_>
    <_>
      <rect>
        14 18 2 4</rect></_>
    <_>
      <rect>
        14 26 4 2</rect></_>
    <_>
      <rect>
        14 26 6 2</rect></_>
    <_>
      <rect>
        15 0 3 2</rect></_>
    <_>
      <rect>
        15 3 1 1</rect></_>
    <_>
      <rect>
        15 7 2 3</rect></_>
    <_>
      <rect>
        15 7 3 2</rect></_>
    <_>
      <rect>
        15 11 2 2</rect></_>
    <_>
      <rect>
        15 20 5 4</rect></_>
    <_>
      <rect>
        15 27 1 1</rect></_>
    <_>
      <rect>
        16 6 5 8</rect></_>
    <_>
      <rect>
        16 10 1 1</rect></_>
    <_>
      <rect>
        16 12 2 2</rect></_>
    <_>
      <rect>
        16 13 1 1</rect></_>
    <_>
      <rect>
        16 13 2 3</rect></_>
    <_>
      <rect>
        16 16 2 5</rect></_>
    <_>
      <rect>
        16 23 5 3</rect></_>
    <_>
      <rect>
        17 0 3 1</rect></_>
    <_>
      <rect>
        17 0 5 6</rect></_>
    <_>
      <rect>
        17 1 5 10</rect></_>
    <_>
      <rect>
        17 6 5 6</rect></_>
    <_>
      <rect>
        17 7 1 1</rect></_>
    <_>
      <rect>
        17 14 2 2</rect></_>
    <_>
      <rect>
        17 17 2 2</rect></_>
    <_>
      <rect>
        18 2 2 1</rect></_>
    <_>
      <rect>
        18 8 1 3</rect></_>
    <_>
      <rect>
        18 8 2 2</rect></_>
    <_>
      <rect>
        18 12 1 1</rect></_>
    <_>
      <rect>
        18 12 2 2</rect></_>
    <_>
      <rect>
        18 14 2 2</rect></_>
    <_>
      <rect>
        18 17 4 5</rect></_>
    <_>
      <rect>
        18 20 4 4</rect></_>
    <_>
      <rect>
        18 23 4 3</rect></_>
    <_>
      <rect>
        18 24 1 1</rect></_>
    <_>
      <rect>
        18 29 1 1</rect></_>
    <_>
      <rect>
        19 0 4 10</rect></_>
    <_>
      <rect>
        19 3 2 1</rect></_>
    <_>
      <rect>
        19 8 1 1</rect></_>
    <_>
      <rect>
        19 8 3 5</rect></_>
    <_>
      <rect>
        19 9 1 2</rect></_>
    <_>
      <rect>
        19 11 1 3</rect></_>
    <_>
      <rect>
        19 17 4 5</rect></_>
    <_>
      <rect>
        19 20 1 1</rect></_>
    <_>
      <rect>
        20 0 4 2</rect></_>
    <_>
      <rect>
        20 6 4 6</rect></_>
    <_>
      <rect>
        20 8 4 7</rect></_>
    <_>
      <rect>
        20 9 2 3</rect></_>
    <_>
      <rect>
        20 9 4 6</rect></_>
    <_>
      <rect>
        20 9 4 7</rect></_>
    <_>
      <rect>
        20 13 4 6</rect></_>
    <_>
      <rect>
        20 14 4 6</rect></_>
    <_>
      <rect>
        20 20 1 2</rect></_>
    <_>
      <rect>
        20 23 4 3</rect></_>
    <_>
      <rect>
        20 26 4 2</rect></_>
    <_>
      <rect>
        21 0 1 2</rect></_>
    <_>
      <rect>
        21 4 1 1</rect></_>
    <_>
      <rect>
        21 26 1 2</rect></_>
    <_>
      <rect>
        22 1 1 1</rect></_>
    <_>
      <rect>
        22 26 3 2</rect></_>
    <_>
      <rect>
        22 29 1 1</rect></_>
    <_>
      <rect>
        23 0 2 2</rect></_>
    <_>
      <rect>
        23 0 3 9</rect></_>
    <_>
      <rect>
        23 1 1 1</rect></_>
    <_>
      <rect>
        23 1 3 8</rect></_>
    <_>
      <rect>
        23 7 3 8</rect></_>
    <_>
      <rect>
        23 10 3 3</rect></_>
    <_>
      <rect>
        23 13 1 3</rect></_>
    <_>
      <rect>
        23 23 3 3</rect></_>
    <_>
      <rect>
        24 0 2 1</rect></_>
    <_>
      <rect>
        24 1 1 1</rect></_>
    <_>
      <rect>
        24 4 1 1</rect></_>
    <_>
      <rect>
        25 1 2 1</rect></_>
    <_>
      <rect>
        25 6 2 8</rect></_>
    <_>
      <rect>
        26 0 2 3</rect></_>
    <_>
      <rect>
        26 4 2 1</rect></_>
    <_>
      <rect>
        26 5 2 2</rect></_>
    <_>
      <rect>
        26 14 2 1</rect></_>
    <_>
      <rect>
        26 23 2 3</rect></_>
    <_>
      <rect>
        27 0 1 1</rect></_>
    <_>
      <rect>
        27 0 1 2</rect></_>
    <_>
      <rect>
        28 6 1 1</rect></_>
    <_>
      <rect>
        28 8 1 1</rect></_>
    <_>
      <rect>
        28 10 1 1</rect></_>
    <_>
      <rect>
        28 11 1 1</rect></_>
    <_>
      <rect>
        28 14 1 1</rect></_>
    <_>
      <rect>
        29 0 1 10</rect></_>
    <_>
      <rect>
        29 2 1 3</rect></_>
    <_>
      <rect>
        29 3 1 1</rect></_>
    <_>
      <rect>
        29 4 1 6</rect></_>
    <_>
      <rect>
        29 6 1 2</rect></_>
    <_>
      <rect>
        29 8 1 1</rect></_>
    <_>
      <rect>
        29 10 1 1</rect></_>
    <_>
      <rect>
        29 10 1 2</rect></_>
    <_>
      <rect>
        29 11 1 1</rect></_>
    <_>
      <rect>
        29 14 1 1</rect></_>
    <_>
      <rect>
        29 19 1 2</rect></_></features></cascade>
</opencv_storage>
